<?xml version="1.0"?>
<opencv_storage>
<cascade>
  <stageType>BOOST</stageType>
  <featureType>LBP</featureType>
  <height>128</height>
  <width>128</width>
  <stageParams>
    <boostType>GAB</boostType>
    <minHitRate>9.9500000476837158e-01</minHitRate>
    <maxFalseAlarm>5.0000000000000000e-01</maxFalseAlarm>
    <weightTrimRate>9.4999998807907104e-01</weightTrimRate>
    <maxDepth>1</maxDepth>
    <maxWeakCount>100</maxWeakCount></stageParams>
  <featureParams>
    <maxCatCount>256</maxCatCount>
    <featSize>1</featSize></featureParams>
  <stageNum>8</stageNum>
  <stages>
    <!-- stage 0 -->
    <_>
      <maxWeakCount>2</maxWeakCount>
      <stageThreshold>-5.7889744639396667e-02</stageThreshold>
      <weakClassifiers>
        <_>
          <internalNodes>
            0 -1 14 -246450369 9765123 49294 -796457973 -796351837
            -1071541749 -1071557749 -99408953</internalNodes>
          <leafValues>
            -8.7450981140136719e-01 8.0000001192092896e-01</leafValues></_>
        <_>
          <internalNodes>
            0 -1 3 1432866975 -803993338 16909685 -712915773 -1340964219
            -534663165 50348211 -537405093</internalNodes>
          <leafValues>
            -8.5788977146148682e-01 8.3427804708480835e-01</leafValues></_></weakClassifiers></_>
    <!-- stage 1 -->
    <_>
      <maxWeakCount>2</maxWeakCount>
      <stageThreshold>-1.5780992805957794e-01</stageThreshold>
      <weakClassifiers>
        <_>
          <internalNodes>
            0 -1 10 -925641741 -633175999 570983941 -217759634 2949130
            -1492909598 -1978882645 -758445785</internalNodes>
          <leafValues>
            -8.9300411939620972e-01 6.7213112115859985e-01</leafValues></_>
        <_>
          <internalNodes>
            0 -1 11 -784109129 1942716675 -2122194863 -792104934
            -2034237431 -1280655206 -2128502037 -627493045</internalNodes>
          <leafValues>
            -8.2994109392166138e-01 8.2390600442886353e-01</leafValues></_></weakClassifiers></_>
    <!-- stage 2 -->
    <_>
      <maxWeakCount>2</maxWeakCount>
      <stageThreshold>-2.1079169213771820e-01</stageThreshold>
      <weakClassifiers>
        <_>
          <internalNodes>
            0 -1 9 1414987261 -670661435 -2147385343 -71225141
            -1593638507 -2145386492 -2096985954 -1009316653</internalNodes>
          <leafValues>
            -8.7755101919174194e-01 6.6666668653488159e-01</leafValues></_>
        <_>
          <internalNodes>
            0 -1 0 -465194529 1074889217 -2126413759 -578322427
            805358147 554704897 689232393 -3816967</internalNodes>
          <leafValues>
            -8.7745833396911621e-01 8.0140078067779541e-01</leafValues></_></weakClassifiers></_>
    <!-- stage 3 -->
    <_>
      <maxWeakCount>2</maxWeakCount>
      <stageThreshold>-2.4021404981613159e-01</stageThreshold>
      <weakClassifiers>
        <_>
          <internalNodes>
            0 -1 13 -1051236491 -1056133053 -2130165367 -1940881215
            -1744709470 -257161197 -938406965 -1794390901</internalNodes>
          <leafValues>
            -8.6991870403289795e-01 6.6386556625366211e-01</leafValues></_>
        <_>
          <internalNodes>
            0 -1 5 -2008836665 1479270518 269551973 -250842735
            -302708033 -2113819644 144201915 -156612113</internalNodes>
          <leafValues>
            -9.0407961606979370e-01 7.3689967393875122e-01</leafValues></_></weakClassifiers></_>
    <!-- stage 4 -->
    <_>
      <maxWeakCount>2</maxWeakCount>
      <stageThreshold>-1.9665835797786713e-01</stageThreshold>
      <weakClassifiers>
        <_>
          <internalNodes>
            0 -1 15 1662463767 1904812866 -647886848 -1069006570
            -2083925504 140542209 1648402563 -842109757</internalNodes>
          <leafValues>
            -9.2405062913894653e-01 6.5625000000000000e-01</leafValues></_>
        <_>
          <internalNodes>
            0 -1 1 1204604427 -2111679015 -2113793699 -49217275
            1216414645 -536248319 1619084546 -276725717</internalNodes>
          <leafValues>
            -8.5290837287902832e-01 7.7183908224105835e-01</leafValues></_></weakClassifiers></_>
    <!-- stage 5 -->
    <_>
      <maxWeakCount>2</maxWeakCount>
      <stageThreshold>-2.2610561549663544e-01</stageThreshold>
      <weakClassifiers>
        <_>
          <internalNodes>
            0 -1 8 1094692155 -1996259199 285328848 2013499529
            -500543765 -1554931064 -1988056693 -511031095</internalNodes>
          <leafValues>
            -8.6122447252273560e-01 6.3333332538604736e-01</leafValues></_>
        <_>
          <internalNodes>
            0 -1 2 -783835265 -1140289527 66033 -1275026864 -1031237049
            286265376 -582991709 -607142183</internalNodes>
          <leafValues>
            -8.5943895578384399e-01 7.5746214389801025e-01</leafValues></_></weakClassifiers></_>
    <!-- stage 6 -->
    <_>
      <maxWeakCount>2</maxWeakCount>
      <stageThreshold>-5.4894216358661652e-02</stageThreshold>
      <weakClassifiers>
        <_>
          <internalNodes>
            0 -1 7 -327683 -33554433 -81921 -516 -377503753 -2
            -1073758345 -570450465</internalNodes>
          <leafValues>
            -7.8754580020904541e-01 8.6956518888473511e-01</leafValues></_>
        <_>
          <internalNodes>
            0 -1 6 -472418539 -2046160815 1417789463 -7079797 136548489
            1132494864 -668893177 -772206453</internalNodes>
          <leafValues>
            -8.5982662439346313e-01 7.3265159130096436e-01</leafValues></_></weakClassifiers></_>
    <!-- stage 7 -->
    <_>
      <maxWeakCount>2</maxWeakCount>
      <stageThreshold>6.0864944010972977e-02</stageThreshold>
      <weakClassifiers>
        <_>
          <internalNodes>
            0 -1 12 1073854501 -2130634752 1073758536 -1006550963
            12656649 276856960 -1610464766 -221773679</internalNodes>
          <leafValues>
            -9.0114068984985352e-01 1.</leafValues></_>
        <_>
          <internalNodes>
            0 -1 4 -2146930663 -532479999 -1862254080 -536754175
            537397313 -2092956416 -1073737727 805341312</internalNodes>
          <leafValues>
            -8.7614649534225464e-01 9.6200561523437500e-01</leafValues></_></weakClassifiers></_></stages>
  <features>
    <_>
      <rect>
        0 34 24 26</rect></_>
    <_>
      <rect>
        1 26 25 17</rect></_>
    <_>
      <rect>
        1 70 28 15</rect></_>
    <_>
      <rect>
        16 12 20 17</rect></_>
    <_>
      <rect>
        23 75 9 16</rect></_>
    <_>
      <rect>
        25 3 24 24</rect></_>
    <_>
      <rect>
        27 33 8 11</rect></_>
    <_>
      <rect>
        30 14 9 15</rect></_>
    <_>
      <rect>
        30 14 30 21</rect></_>
    <_>
      <rect>
        32 8 16 22</rect></_>
    <_>
      <rect>
        41 1 13 27</rect></_>
    <_>
      <rect>
        45 1 18 24</rect></_>
    <_>
      <rect>
        45 8 11 23</rect></_>
    <_>
      <rect>
        45 38 27 24</rect></_>
    <_>
      <rect>
        48 4 17 28</rect></_>
    <_>
      <rect>
        58 15 16 34</rect></_></features></cascade>
</opencv_storage>
